{
  "meta": {
    "activation": "tanh"
  },
  "layers.0.weight": [
    [
      0.8168245553970337
    ],
    [
      1.056998372077942
    ],
    [
      0.47091150283813477
    ],
    [
      0.32522326707839966
    ],
    [
      0.19504253566265106
    ],
    [
      0.4186943769454956
    ],
    [
      0.4478920102119446
    ],
    [
      -0.038911525160074234
    ],
    [
      -0.524405300617218
    ],
    [
      1.038500189781189
    ],
    [
      -0.013544279150664806
    ],
    [
      0.4830770790576935
    ],
    [
      -0.4949251413345337
    ],
    [
      -0.2992618680000305
    ],
    [
      -0.6474218964576721
    ],
    [
      0.2550271153450012
    ],
    [
      1.07693612575531
    ],
    [
      -0.028527747839689255
    ],
    [
      0.6523154377937317
    ],
    [
      0.5503419041633606
    ],
    [
      -0.4892409145832062
    ],
    [
      0.9930502772331238
    ],
    [
      0.4635084569454193
    ],
    [
      1.2457778453826904
    ],
    [
      0.32542672753334045
    ],
    [
      -0.39307934045791626
    ],
    [
      0.7740779519081116
    ],
    [
      -1.1168057918548584
    ],
    [
      -0.09076479077339172
    ],
    [
      0.04868362471461296
    ],
    [
      -0.047539643943309784
    ],
    [
      -0.2288367599248886
    ]
  ],
  "layers.0.bias": [
    0.7792815566062927,
    -0.05291750282049179,
    0.41825294494628906,
    0.4212292432785034,
    0.9159786105155945,
    0.3622990548610687,
    -1.0072109699249268,
    -0.8245499730110168,
    -0.9521560668945312,
    -0.9852889180183411,
    -0.8386005163192749,
    -0.012026669457554817,
    0.9603619575500488,
    -0.6377766728401184,
    0.4190429151058197,
    -0.4469243586063385,
    0.7626686096191406,
    0.6346117854118347,
    0.4682253897190094,
    0.8882952332496643,
    -0.7590746283531189,
    -0.864819347858429,
    -0.49742749333381653,
    0.1888248473405838,
    0.872092604637146,
    0.6501752138137817,
    0.3035130202770233,
    -0.1679474115371704,
    -0.5733270645141602,
    0.9831940531730652,
    -0.8736310005187988,
    -0.6954458355903625
  ],
  "layers.1.weight": [
    [
      0.11248733848333359,
      0.13197408616542816,
      0.05589926987886429,
      0.00807240977883339,
      -0.011577054858207703,
      0.034176304936409,
      -0.0929100289940834,
      0.1658724993467331,
      0.167997807264328,
      -0.06694487482309341,
      0.11398285627365112,
      0.018763314932584763,
      -0.12560410797595978,
      0.020316770300269127,
      -0.034985341131687164,
      0.14036054909229279,
      0.01894797384738922,
      -0.02937820926308632,
      -0.1332857608795166,
      0.12409106642007828,
      0.10937602818012238,
      0.02826564386487007,
      -0.021095432341098785,
      -0.061579953879117966,
      0.050496600568294525,
      0.17528268694877625,
      -0.022675110027194023,
      0.013583948835730553,
      -0.17776428163051605,
      0.05399933084845543,
      -0.08461924642324448,
      -0.05169188603758812
    ],
    [
      -0.09981387853622437,
      0.16790737211704254,
      0.11352892220020294,
      -0.08425839990377426,
      -0.050099149346351624,
      0.04573584720492363,
      0.06918200850486755,
      -0.0768638327717781,
      0.07791644334793091,
      0.026868607848882675,
      0.10780570656061172,
      -0.13620765507221222,
      -0.11580631881952286,
      0.08942513167858124,
      -0.005764257628470659,
      -0.07229634374380112,
      0.13394002616405487,
      -0.02645784243941307,
      -0.12319909036159515,
      -0.03127734735608101,
      -0.07572108507156372,
      -0.06377499550580978,
      -0.14156481623649597,
      0.1428840309381485,
      0.14870886504650116,
      -0.1530945599079132,
      0.10587288439273834,
      0.05345941334962845,
      -0.06503546983003616,
      -0.058176495134830475,
      0.036477867513895035,
      0.04452960193157196
    ],
    [
      0.15020252764225006,
      0.16076728701591492,
      0.009348802268505096,
      0.16719266772270203,
      -0.10386817902326584,
      0.00151459826156497,
      -0.14511753618717194,
      0.08405355364084244,
      0.0352567657828331,
      -0.10531143844127655,
      -0.13543836772441864,
      -0.040091171860694885,
      -0.06807493418455124,
      -0.07281176745891571,
      -0.15513627231121063,
      -0.1131165400147438,
      0.14586326479911804,
      -0.08611093461513519,
      0.07012505829334259,
      0.01191630121320486,
      -0.023921476677060127,
      0.06050410494208336,
      0.13274697959423065,
      0.04855380952358246,
      0.01987743005156517,
      0.1436590850353241,
      0.011650129221379757,
      0.04355695843696594,
      0.17174109816551208,
      -0.12733276188373566,
      0.12780362367630005,
      -0.08549079298973083
    ],
    [
      -0.018731068819761276,
      -0.12358049303293228,
      0.10402640700340271,
      -0.15602289140224457,
      -0.08861711621284485,
      0.015660949051380157,
      -0.06599792093038559,
      0.02829543687403202,
      0.17186865210533142,
      -0.1635027825832367,
      -0.10579989105463028,
      -0.24667681753635406,
      0.16943438351154327,
      0.05454465001821518,
      -0.11930977553129196,
      -0.14841097593307495,
      0.1234729066491127,
      0.15216128528118134,
      -0.11653095483779907,
      0.03572695329785347,
      -0.03391439840197563,
      0.0944470465183258,
      -0.09534423053264618,
      0.11843309551477432,
      0.16589315235614777,
      0.10327140241861343,
      -0.040834538638591766,
      0.03287002816796303,
      0.08639180660247803,
      -0.111164890229702,
      -0.07308885455131531,
      -0.16178208589553833
    ],
    [
      0.1325431615114212,
      -0.09091376513242722,
      0.16058114171028137,
      -0.023924512788653374,
      -0.0564364492893219,
      0.10065191984176636,
      -0.019955884665250778,
      -0.12814722955226898,
      0.011141037568449974,
      -0.07900530099868774,
      -0.13606977462768555,
      -0.05238417908549309,
      0.06262227147817612,
      0.005358222406357527,
      -0.07441097497940063,
      0.057285964488983154,
      -0.04967955872416496,
      -0.12757572531700134,
      0.06676214933395386,
      -0.05248545855283737,
      -0.06026585027575493,
      0.13243696093559265,
      0.12746207416057587,
      -0.17872798442840576,
      0.16057950258255005,
      0.16276341676712036,
      -0.12243586778640747,
      -0.17603924870491028,
      -0.14678534865379333,
      -0.03866087272763252,
      -0.016228599473834038,
      0.03946860507130623
    ],
    [
      0.03781462833285332,
      0.08821268379688263,
      -0.14130543172359467,
      0.16361235082149506,
      0.14583991467952728,
      0.08106641471385956,
      0.04126808047294617,
      -0.09239338338375092,
      0.01788676343858242,
      -0.12758782505989075,
      0.16872364282608032,
      -0.1447868049144745,
      0.14877885580062866,
      0.1727580428123474,
      -0.08746474981307983,
      -0.15266673266887665,
      0.06017162278294563,
      -0.14214640855789185,
      -0.16395530104637146,
      -0.11119082570075989,
      0.1295192390680313,
      -0.11267807334661484,
      -0.06642289459705353,
      -0.053090594708919525,
      0.11936954408884048,
      0.0642358660697937,
      0.10408397018909454,
      -0.047907691448926926,
      -0.09802868962287903,
      0.057373110204935074,
      0.07763473689556122,
      0.15259777009487152
    ],
    [
      -0.1584581881761551,
      -0.140671044588089,
      0.12436189502477646,
      0.05643501505255699,
      0.1259666383266449,
      -0.03412104770541191,
      0.1745525598526001,
      0.06111984699964523,
      -0.0758599117398262,
      -0.07987342774868011,
      0.03864924609661102,
      0.06342723965644836,
      -0.08562804013490677,
      -0.10407383739948273,
      0.055026326328516006,
      0.08230018615722656,
      0.17326834797859192,
      -0.0660853460431099,
      -0.09896301478147507,
      -0.10415969789028168,
      -0.12722770869731903,
      0.18213887512683868,
      -0.08994951844215393,
      -0.09185381978750229,
      0.1383897215127945,
      0.14424829185009003,
      -0.15761198103427887,
      -0.016943244263529778,
      0.04457845538854599,
      0.0349842831492424,
      -0.10844755917787552,
      -0.15146954357624054
    ],
    [
      -0.13511376082897186,
      0.06601835042238235,
      -0.09102844446897507,
      -0.17146266996860504,
      0.16553902626037598,
      0.0703030526638031,
      -0.050318002700805664,
      0.03635140880942345,
      -0.05509331822395325,
      -0.12038623541593552,
      -0.15535655617713928,
      0.049939531832933426,
      -0.16412590444087982,
      -0.12390493601560593,
      0.1509510725736618,
      -0.10576114058494568,
      -0.06486058980226517,
      -0.007928031496703625,
      -0.1806057244539261,
      -0.16810357570648193,
      -0.13560175895690918,
      -0.03269420564174652,
      -0.05956560745835304,
      0.1369701623916626,
      0.10486689954996109,
      0.16760042309761047,
      -0.15810173749923706,
      -0.0842830240726471,
      0.12906718254089355,
      0.053176358342170715,
      -0.10703433305025101,
      0.14169277250766754
    ],
    [
      -0.09628120064735413,
      0.20220620930194855,
      -0.1469050496816635,
      0.08314628154039383,
      -0.017723528668284416,
      -0.1606164425611496,
      0.09451176226139069,
      -0.0575064942240715,
      0.009497818537056446,
      -0.05577526614069939,
      -0.03225064277648926,
      -0.0687134712934494,
      0.07748128473758698,
      -0.006409366615116596,
      0.12044919282197952,
      0.07703181356191635,
      -0.00500069884583354,
      0.06320071220397949,
      -0.06282547861337662,
      -0.14243189990520477,
      -0.1102416068315506,
      -0.12391634285449982,
      -0.13799595832824707,
      0.04084186628460884,
      -0.023342851549386978,
      -0.16365516185760498,
      0.09084568172693253,
      0.1013052836060524,
      0.1578448861837387,
      -0.000125409773318097,
      -0.005581760313361883,
      0.11170640587806702
    ],
    [
      -0.14528122544288635,
      0.0025454089045524597,
      0.1248503029346466,
      0.13353359699249268,
      0.03006547875702381,
      -0.0035054408945143223,
      0.06026044115424156,
      0.02894757315516472,
      -0.014141000807285309,
      0.14344936609268188,
      0.14243562519550323,
      -0.035159021615982056,
      0.1604556292295456,
      -0.05606188252568245,
      0.03510447219014168,
      0.15141405165195465,
      -0.07756507396697998,
      0.09172599017620087,
      -0.017634620890021324,
      -0.09196047484874725,
      -0.019023537635803223,
      0.1566707342863083,
      0.09380953758955002,
      -0.09690159559249878,
      0.16934573650360107,
      0.0408102422952652,
      0.156389519572258,
      0.167998269200325,
      -0.060608215630054474,
      0.14973114430904388,
      -0.03481214493513107,
      0.018267599865794182
    ],
    [
      -0.00275393296033144,
      0.01781357452273369,
      -0.02266458235681057,
      -0.17295071482658386,
      0.0057416814379394054,
      0.1516137570142746,
      0.06282290071249008,
      -0.15411989390850067,
      0.04167827218770981,
      -0.02859950065612793,
      0.061214808374643326,
      -0.20812548696994781,
      0.025896508246660233,
      -0.11628101766109467,
      0.02429603785276413,
      0.11371525377035141,
      0.11701185256242752,
      -0.03882031887769699,
      0.15028336644172668,
      -0.01893565244972706,
      -0.09311836957931519,
      0.08108114451169968,
      0.014063850976526737,
      -0.1355053186416626,
      0.10272295773029327,
      0.16394172608852386,
      0.09130139648914337,
      -0.02767397277057171,
      -0.13871875405311584,
      0.14224258065223694,
      -0.08494167774915695,
      0.0364856943488121
    ],
    [
      -0.15508702397346497,
      0.06301778554916382,
      0.03969860449433327,
      0.175615131855011,
      0.09265616536140442,
      -0.16274695098400116,
      0.1372355967760086,
      -0.14950640499591827,
      -0.08991563320159912,
      0.09355820715427399,
      -0.1027660146355629,
      0.05264921858906746,
      0.019539695233106613,
      0.005621943157166243,
      -0.09537289291620255,
      0.11865583807229996,
      0.028055652976036072,
      0.0725056529045105,
      0.022210698574781418,
      -0.08277435600757599,
      -0.0715324878692627,
      0.12070836126804352,
      -0.15860413014888763,
      -0.07824187725782394,
      -0.155075341463089,
      -0.10153232514858246,
      0.022159956395626068,
      -0.0273684523999691,
      0.05200162157416344,
      0.14136260747909546,
      0.030540725216269493,
      0.16108162701129913
    ],
    [
      -0.007138478569686413,
      0.20347091555595398,
      0.022176876664161682,
      -0.013296217657625675,
      0.04125501587986946,
      -0.14729420840740204,
      0.14843831956386566,
      0.16966906189918518,
      -0.14843593537807465,
      -0.1049911379814148,
      0.14754465222358704,
      0.030618660151958466,
      -0.06721848994493484,
      -0.07980532199144363,
      -0.04272228479385376,
      -0.02682666853070259,
      0.15817488729953766,
      -0.11560901254415512,
      0.020629417151212692,
      0.043265294283628464,
      -0.08087589591741562,
      -0.011614720337092876,
      -0.026331141591072083,
      0.14458942413330078,
      0.1183975487947464,
      -0.014210310764610767,
      -0.09255508333444595,
      -0.10750309377908707,
      -0.06709478050470352,
      0.1454356163740158,
      0.15161654353141785,
      0.04331943392753601
    ],
    [
      -0.17284218966960907,
      0.06019465997815132,
      -0.041832417249679565,
      0.08821890503168106,
      0.08289189636707306,
      0.13771231472492218,
      0.016791589558124542,
      0.02202555164694786,
      0.009452899917960167,
      0.12121569365262985,
      0.14183790981769562,
      0.029198244214057922,
      -0.03802378848195076,
      -0.04175395891070366,
      0.16467663645744324,
      -0.08493736386299133,
      0.023920243605971336,
      0.04658149555325508,
      0.08469884842634201,
      -0.11528937518596649,
      -0.02590777911245823,
      -0.008052526973187923,
      -0.01050194725394249,
      -0.1503613293170929,
      0.06719005107879639,
      -0.14074011147022247,
      -0.050912078469991684,
      0.05745134502649307,
      0.14789341390132904,
      -0.03920864313840866,
      -0.08939959108829498,
      -0.0695117712020874
    ],
    [
      0.005438847467303276,
      -0.1369641125202179,
      0.04983164742588997,
      0.08879483491182327,
      0.17547576129436493,
      0.15636199712753296,
      -0.041420698165893555,
      0.06665955483913422,
      0.015775594860315323,
      0.08197925984859467,
      -0.08878455311059952,
      0.15995877981185913,
      0.005607391241937876,
      0.10333805531263351,
      0.13533471524715424,
      -0.04480243846774101,
      0.14071449637413025,
      -0.037140510976314545,
      0.09205903112888336,
      -0.02024077996611595,
      -0.14688608050346375,
      -0.04627902805805206,
      0.0604402981698513,
      0.1309339702129364,
      -0.13571378588676453,
      -0.09589799493551254,
      0.0935029536485672,
      -0.08342655748128891,
      0.0005328732659108937,
      -0.11480759084224701,
      0.002689406042918563,
      -0.0940651223063469
    ],
    [
      0.048501767218112946,
      0.06714201718568802,
      0.04424810782074928,
      -0.12692290544509888,
      0.1425652652978897,
      0.16104154288768768,
      -0.162277489900589,
      0.13539151847362518,
      -0.16147436201572418,
      0.08553854376077652,
      -0.019671844318509102,
      0.05645442008972168,
      -0.08382042497396469,
      0.12845471501350403,
      0.026199379935860634,
      -0.019066404551267624,
      0.0008541946299374104,
      0.1381089687347412,
      0.18295301496982574,
      -0.09170025587081909,
      -0.16601347923278809,
      -0.1149088442325592,
      -0.10157053917646408,
      -0.14655111730098724,
      -0.05364641919732094,
      -0.06275945156812668,
      0.005987226031720638,
      0.046988774091005325,
      0.10363278537988663,
      -0.10727886855602264,
      -0.13603174686431885,
      -0.08746945112943649
    ],
    [
      -0.12527161836624146,
      -0.042619191110134125,
      -0.1305168867111206,
      -0.0014180280268192291,
      -0.017219178378582,
      -0.13174031674861908,
      -0.08376254141330719,
      0.07034190744161606,
      -0.05622117593884468,
      -0.15720081329345703,
      0.13695593178272247,
      -0.08137557655572891,
      0.024446265771985054,
      0.13542674481868744,
      0.09220962971448898,
      -0.1491670161485672,
      0.15914666652679443,
      -0.042194511741399765,
      0.04643428325653076,
      0.08396090567111969,
      0.05663258954882622,
      0.1201929971575737,
      -0.08566594868898392,
      0.11486782878637314,
      0.1191495880484581,
      -0.1494179368019104,
      -0.06822133809328079,
      0.16607192158699036,
      -0.13821376860141754,
      -0.15302735567092896,
      0.10225444287061691,
      0.05555135756731033
    ],
    [
      0.011361337266862392,
      0.14660193026065826,
      -0.0004914291203022003,
      0.1612582802772522,
      -0.12644167244434357,
      -0.16305497288703918,
      -0.03551769629120827,
      0.18038426339626312,
      -0.14298932254314423,
      0.06972380727529526,
      0.053626734763383865,
      -0.13797558844089508,
      -0.14638805389404297,
      0.08384374529123306,
      0.06919614225625992,
      0.0013613326009362936,
      0.06380771845579147,
      0.08755622804164886,
      -0.1310870349407196,
      -0.16084328293800354,
      -0.021168960258364677,
      -0.030818719416856766,
      -0.0630708560347557,
      0.050888534635305405,
      -0.14489388465881348,
      0.16694176197052002,
      -0.041373275220394135,
      -0.09756627678871155,
      -0.019217506051063538,
      -0.14847061038017273,
      -0.14446038007736206,
      0.060702137649059296
    ],
    [
      -0.041629359126091,
      -0.09679517149925232,
      0.08959248661994934,
      0.14786547422409058,
      0.027610288932919502,
      -0.0782386064529419,
      0.09422235190868378,
      -0.06809244304895401,
      -0.08876435458660126,
      -0.03082810342311859,
      -0.049997519701719284,
      0.22769306600093842,
      -0.03115973062813282,
      -0.1676653027534485,
      -0.05974709615111351,
      0.060006242245435715,
      0.08153893798589706,
      -0.1107838824391365,
      -0.11885389685630798,
      -0.04346533492207527,
      0.004272059071809053,
      -0.1397220343351364,
      0.07761884480714798,
      -0.03660411760210991,
      0.11075524985790253,
      0.056455694139003754,
      -0.023007091134786606,
      -0.01771603152155876,
      0.046670522540807724,
      -0.08468916267156601,
      -0.05301836133003235,
      0.07269927859306335
    ],
    [
      -0.14994248747825623,
      -0.0393427237868309,
      0.045938413590192795,
      -0.0800623819231987,
      0.09266474097967148,
      0.09873330593109131,
      -0.02805238589644432,
      -0.06513742357492447,
      0.07758741825819016,
      0.01406449731439352,
      -0.14484871923923492,
      0.17103733122348785,
      0.17485518753528595,
      0.1415705680847168,
      -0.10135222971439362,
      0.15850263833999634,
      -0.06790418922901154,
      -0.12500399351119995,
      0.13299508392810822,
      -0.11681431531906128,
      0.15442486107349396,
      0.17964619398117065,
      -0.12320159375667572,
      0.11220985651016235,
      -0.024610403925180435,
      -0.04155978187918663,
      0.0324968583881855,
      0.06577934324741364,
      -0.12918828427791595,
      0.18165212869644165,
      0.11555366963148117,
      -0.111551433801651
    ],
    [
      0.07504407316446304,
      0.037728238850831985,
      0.08749444037675858,
      -0.01570790447294712,
      0.050229307264089584,
      0.03778698295354843,
      0.16844719648361206,
      0.03387836366891861,
      0.1526743620634079,
      0.026101412251591682,
      0.0657358318567276,
      -0.08788464963436127,
      -0.02090190164744854,
      -0.12258424609899521,
      0.1726781725883484,
      -0.08934547007083893,
      0.08610179275274277,
      0.031258564442396164,
      0.10764292627573013,
      -0.17576852440834045,
      -0.007832624949514866,
      -0.1747017800807953,
      -0.13407693803310394,
      0.0667145848274231,
      -0.0514441542327404,
      0.11294705420732498,
      0.12569211423397064,
      0.0017741209594532847,
      -0.043008361011743546,
      0.11369223892688751,
      0.1774863749742508,
      0.031360939145088196
    ],
    [
      -0.15309888124465942,
      0.1474302113056183,
      -0.03285868838429451,
      -0.1371927112340927,
      0.030271096155047417,
      -0.0007437214371748269,
      0.008356384932994843,
      0.18376155197620392,
      0.09594246000051498,
      0.11455962061882019,
      0.00938336830586195,
      0.03880894184112549,
      0.06111739203333855,
      -0.12495993077754974,
      0.15955646336078644,
      0.02926379255950451,
      -0.1678851991891861,
      -0.10975431650876999,
      0.08389417827129364,
      0.034903161227703094,
      0.092900849878788,
      -0.17074112594127655,
      0.0057991873472929,
      0.12361323088407516,
      0.09014037996530533,
      0.002788590034469962,
      -0.17171014845371246,
      0.1388210952281952,
      0.07585518062114716,
      0.06107507273554802,
      0.11445104330778122,
      0.11179705709218979
    ],
    [
      -0.015110349282622337,
      0.11486079543828964,
      0.12493150681257248,
      0.049871452152729034,
      -0.13093408942222595,
      0.12926754355430603,
      -0.08930544555187225,
      0.14569389820098877,
      -0.11484203487634659,
      -0.013132515363395214,
      -0.07330092042684555,
      -0.07843246310949326,
      -0.056265901774168015,
      0.1083483025431633,
      0.05910144001245499,
      -0.02075597271323204,
      -0.13811329007148743,
      -0.09248141944408417,
      0.10400978475809097,
      -0.07792334258556366,
      -0.14099985361099243,
      -0.09640177339315414,
      -0.06333888322114944,
      -0.07861737161874771,
      0.09891039878129959,
      0.0018498945282772183,
      0.17002156376838684,
      -0.1652277112007141,
      -0.09392613917589188,
      0.06375392526388168,
      0.1033383384346962,
      -0.07798893749713898
    ],
    [
      0.0623958446085453,
      -0.08055730909109116,
      -0.11540509015321732,
      0.08714346587657928,
      -0.019729837775230408,
      -0.1385609656572342,
      -0.0002299513143952936,
      0.16437087953090668,
      0.04877939075231552,
      -0.031114619225263596,
      -0.023298613727092743,
      -0.12490766495466232,
      0.09453888982534409,
      0.012064752168953419,
      -0.09623387455940247,
      0.018132656812667847,
      0.0472472608089447,
      -0.0014832972083240747,
      -0.021655218675732613,
      -0.17450930178165436,
      0.003023238619789481,
      -0.053021274507045746,
      0.005149187985807657,
      -0.10962289571762085,
      0.05772349610924721,
      -0.11688601970672607,
      -0.06344646215438843,
      -0.0780973955988884,
      -0.08004847913980484,
      -0.006266704760491848,
      -0.06987675279378891,
      -0.06748595833778381
    ],
    [
      0.009954760782420635,
      0.09795551747083664,
      -0.0928686186671257,
      0.08392741531133652,
      0.04277799278497696,
      0.12657757103443146,
      0.023627258837223053,
      0.15449053049087524,
      -0.15037581324577332,
      0.05493825301527977,
      -0.1425492763519287,
      0.051065780222415924,
      -0.07354947179555893,
      -0.026399098336696625,
      0.14531175792217255,
      0.1738223135471344,
      -0.05172562599182129,
      -0.1114661768078804,
      0.089433453977108,
      -0.0871037170290947,
      -0.07431153953075409,
      -0.13046526908874512,
      0.18347248435020447,
      0.012695558369159698,
      0.02491588331758976,
      -0.11049965769052505,
      0.07659268379211426,
      -0.1669352501630783,
      -0.041672687977552414,
      -0.03644043579697609,
      0.1134662926197052,
      -0.006704405881464481
    ],
    [
      0.019693627953529358,
      0.15734581649303436,
      0.05637413263320923,
      0.13528206944465637,
      -0.06743348389863968,
      0.10155786573886871,
      -0.02528989501297474,
      -0.005998174659907818,
      0.043788108974695206,
      0.16773469746112823,
      0.007374890148639679,
      -0.05015038698911667,
      -0.0700284019112587,
      -0.10414087027311325,
      0.10294222086668015,
      -0.031631726771593094,
      -0.06318735331296921,
      0.031090430915355682,
      0.026836825534701347,
      -0.03451889008283615,
      0.1536109745502472,
      0.10379248857498169,
      0.047315552830696106,
      -0.07289642840623856,
      -0.08041273057460785,
      0.14966486394405365,
      0.035097088664770126,
      -0.16658355295658112,
      -0.016673896461725235,
      0.033001381903886795,
      0.0545082688331604,
      0.15734738111495972
    ],
    [
      -0.002555177081376314,
      -0.025974519550800323,
      0.1149371862411499,
      -0.0379054956138134,
      0.04774732142686844,
      -0.14457929134368896,
      -0.06044857203960419,
      -0.12488538771867752,
      0.025856690481305122,
      -0.1438843458890915,
      0.14291757345199585,
      -0.1611970216035843,
      -0.12138525396585464,
      0.02078726515173912,
      -0.07777741551399231,
      -0.10050009936094284,
      0.12331351637840271,
      0.047723811119794846,
      0.02175142429769039,
      0.07874146848917007,
      -0.05059361830353737,
      0.010461908765137196,
      0.17451679706573486,
      -0.07372433692216873,
      0.0618366003036499,
      0.1446344405412674,
      -0.03176720812916756,
      0.1491020768880844,
      -0.037364404648542404,
      -0.04370182752609253,
      0.05348803102970123,
      -0.01755078136920929
    ],
    [
      -0.05155579745769501,
      0.022994769737124443,
      0.03248177841305733,
      -0.10473538935184479,
      -0.1422703117132187,
      -0.1439710557460785,
      0.17778560519218445,
      0.011939840391278267,
      0.08487643301486969,
      -0.16892407834529877,
      -0.01872311718761921,
      -0.11188598722219467,
      -0.018260402604937553,
      0.16451919078826904,
      0.1244269385933876,
      -0.057581573724746704,
      -0.09901723265647888,
      -0.15195101499557495,
      -0.08849173039197922,
      0.05501106008887291,
      -0.09942179918289185,
      0.09720873832702637,
      -0.05786048620939255,
      0.18202954530715942,
      -0.04983442276716232,
      -0.03697444126009941,
      0.10682044178247452,
      0.10914300382137299,
      0.13496580719947815,
      0.12083502858877182,
      -0.15995115041732788,
      0.10450839251279831
    ],
    [
      -0.09411999583244324,
      0.11440055817365646,
      0.13391731679439545,
      -0.02029249630868435,
      0.05844142287969589,
      0.031402334570884705,
      0.07253940403461456,
      0.12026701867580414,
      0.05271356552839279,
      -0.07093573361635208,
      0.008363730274140835,
      -0.026847604662179947,
      -0.13915008306503296,
      0.06171925738453865,
      -0.10292205214500427,
      0.1109033152461052,
      0.15899468958377838,
      0.021350955590605736,
      0.14752008020877838,
      0.0023590100463479757,
      0.11294862627983093,
      0.07358446717262268,
      -0.14970654249191284,
      -0.13319312036037445,
      -0.04519956186413765,
      0.07297281175851822,
      -0.03360962122678757,
      -0.03700494021177292,
      0.1091495230793953,
      0.15682370960712433,
      0.07651010155677795,
      0.055589791387319565
    ],
    [
      0.08063308894634247,
      0.035071346908807755,
      -0.16909445822238922,
      -0.18725310266017914,
      -0.17497384548187256,
      -0.16712850332260132,
      0.13882024586200714,
      -0.0026869073044508696,
      -0.11320944875478745,
      0.037924401462078094,
      0.010614058002829552,
      -0.16347193717956543,
      -0.17277590930461884,
      0.05176961421966553,
      0.0025811363011598587,
      -0.055209580808877945,
      -0.10593268275260925,
      -0.05697966367006302,
      0.1461363434791565,
      -0.15067540109157562,
      -0.06073247268795967,
      -0.05853695794939995,
      0.1684408336877823,
      0.013696406967937946,
      0.11013856530189514,
      -0.02408473938703537,
      -0.03413885459303856,
      0.10247299075126648,
      -0.057757630944252014,
      0.09533411264419556,
      0.16443009674549103,
      0.08255860954523087
    ],
    [
      0.11699272692203522,
      -0.14959850907325745,
      0.17194867134094238,
      -0.09573066234588623,
      0.10857442766427994,
      0.06590712070465088,
      0.009673107415437698,
      0.037201859056949615,
      -0.18155282735824585,
      0.17162096500396729,
      -0.019831053912639618,
      0.21862441301345825,
      0.006161216180771589,
      -0.0817687064409256,
      0.10866748541593552,
      -0.009464381262660027,
      -0.10632486641407013,
      0.031280647963285446,
      -0.16965532302856445,
      -0.10118136554956436,
      -0.15178997814655304,
      0.01365027204155922,
      -0.10221897065639496,
      -0.009752807207405567,
      -0.1252290904521942,
      -0.1473068743944168,
      -0.0152498260140419,
      0.021540585905313492,
      0.11814628541469574,
      -0.051879946142435074,
      0.15959925949573517,
      -0.13587553799152374
    ],
    [
      0.05304620414972305,
      -0.151254341006279,
      0.1504826694726944,
      -0.07783825695514679,
      0.08890019357204437,
      -0.0025166007690131664,
      -0.06773343682289124,
      -0.03341815993189812,
      -0.05774981528520584,
      0.10548469424247742,
      0.1376827508211136,
      0.1065712496638298,
      -0.043951909989118576,
      -0.04337183013558388,
      -0.0866190642118454,
      -0.005830116104334593,
      0.036565884947776794,
      -0.023792752996087074,
      -0.12081243842840195,
      0.00487751979380846,
      0.0030762674286961555,
      -0.14602044224739075,
      -0.04296637326478958,
      -0.00279034161940217,
      -0.1810690313577652,
      0.019416164606809616,
      0.04287091642618179,
      -0.015641245990991592,
      -0.015218012034893036,
      -0.004462334327399731,
      0.05376419052481651,
      -0.07504985481500626
    ]
  ],
  "layers.1.bias": [
    -0.0074151307344436646,
    0.0950491726398468,
    -0.051142677664756775,
    -0.009770216420292854,
    -0.15504609048366547,
    -0.1409510374069214,
    -0.008888917975127697,
    -0.06938466429710388,
    0.16440342366695404,
    -0.029031602665781975,
    -0.15685953199863434,
    0.15747715532779694,
    -0.12226247042417526,
    0.13768130540847778,
    -0.00938255526125431,
    0.04427016153931618,
    -0.16634105145931244,
    0.15172179043293,
    0.005376762710511684,
    -0.08014264702796936,
    -0.1352735459804535,
    0.02424139901995659,
    -0.1617434173822403,
    0.12221609055995941,
    0.08736016601324081,
    0.14628544449806213,
    0.148770272731781,
    -0.11142921447753906,
    -0.04978886619210243,
    0.09834737330675125,
    0.12184356898069382,
    0.16415636241436005
  ],
  "layers.2.weight": [
    [
      -0.05919616296887398,
      0.018549367785453796,
      -0.0010066808899864554,
      0.0965542420744896,
      -0.09414909780025482,
      0.18483105301856995,
      -0.0708300769329071,
      0.08356290310621262,
      0.1472156047821045,
      -0.1832936555147171,
      0.02284233644604683,
      -0.1387188732624054,
      0.08038982003927231,
      0.10020548105239868,
      -0.05766262859106064,
      -0.12499259412288666,
      -0.07621612399816513,
      0.1423145830631256,
      -0.028779970481991768,
      -0.12577484548091888,
      0.14826840162277222,
      0.12374918162822723,
      -0.0026709234807640314,
      0.009828280657529831,
      0.011725256219506264,
      0.15101876854896545,
      0.09368723630905151,
      0.04067622870206833,
      0.0052882288582623005,
      0.06242011860013008,
      -0.14723896980285645,
      0.08441928029060364
    ]
  ],
  "layers.2.bias": [
    0.06536485254764557
  ]
}