{
  "meta": {
    "activation": "tanh"
  },
  "layers.0.weight": [
    [
      0.15143992006778717
    ],
    [
      0.5520201325416565
    ],
    [
      -0.15734504163265228
    ],
    [
      -0.949625551700592
    ],
    [
      -0.8034319281578064
    ],
    [
      0.9675068855285645
    ],
    [
      -0.3671063780784607
    ],
    [
      -0.7628424763679504
    ],
    [
      1.0127736330032349
    ],
    [
      -0.6745420098304749
    ],
    [
      0.8466859459877014
    ],
    [
      0.8592899441719055
    ],
    [
      -0.16158585250377655
    ],
    [
      0.5486972332000732
    ],
    [
      0.7346227169036865
    ],
    [
      -0.9206056594848633
    ],
    [
      -0.5672992467880249
    ],
    [
      0.09530563652515411
    ],
    [
      0.27902787923812866
    ],
    [
      -0.6538246870040894
    ],
    [
      -0.7882739901542664
    ],
    [
      0.9703363180160522
    ],
    [
      -0.45403850078582764
    ],
    [
      -0.9439449310302734
    ],
    [
      0.40667983889579773
    ],
    [
      -0.5394322276115417
    ],
    [
      -0.38445112109184265
    ],
    [
      -0.38550707697868347
    ],
    [
      0.9535481929779053
    ],
    [
      0.3449992835521698
    ],
    [
      1.0064690113067627
    ],
    [
      -0.31810978055000305
    ]
  ],
  "layers.0.bias": [
    0.7303777933120728,
    -0.8300160765647888,
    0.613368570804596,
    0.06329984962940216,
    0.04684646427631378,
    0.8511647582054138,
    0.07215234637260437,
    -0.42719122767448425,
    -0.5453196167945862,
    0.1681770533323288,
    -0.3281041085720062,
    0.4992184340953827,
    -0.8406644463539124,
    -0.681591808795929,
    0.8682146072387695,
    -0.37947577238082886,
    -0.98292076587677,
    0.707280158996582,
    -0.2793571650981903,
    0.01974794641137123,
    0.6336379051208496,
    0.32780206203460693,
    -0.9535021781921387,
    0.18352262675762177,
    0.9641627669334412,
    -0.045454882085323334,
    0.7158383727073669,
    0.8657749891281128,
    0.3705308139324188,
    -0.935541033744812,
    0.8599118590354919,
    0.8016877770423889
  ],
  "layers.1.weight": [
    [
      0.059756189584732056,
      -0.01710907742381096,
      -0.1169777661561966,
      0.011980636976659298,
      -0.08852121978998184,
      0.16621683537960052,
      -0.1893981546163559,
      0.027135666459798813,
      -0.00038128395681269467,
      -0.01145014725625515,
      -0.016134412959218025,
      0.0850927010178566,
      -0.15845823287963867,
      0.036404483020305634,
      -0.11004228889942169,
      0.04399745911359787,
      -0.02215842343866825,
      0.029202574864029884,
      0.09945273399353027,
      -0.10400090366601944,
      -0.1433674693107605,
      -0.06893585622310638,
      0.13694815337657928,
      -0.15734826028347015,
      0.11918871104717255,
      -0.09017554670572281,
      0.013094106689095497,
      0.07677117735147476,
      -0.04983711242675781,
      -0.1262708306312561,
      0.06761585921049118,
      0.11096794903278351
    ],
    [
      0.057009659707546234,
      -0.0027852661442011595,
      0.012555873952805996,
      0.10395100712776184,
      0.0861557349562645,
      -0.09786771237850189,
      0.14370228350162506,
      -0.00943552702665329,
      -0.07420098781585693,
      -0.03853630647063255,
      0.015788132324814796,
      -0.10481034964323044,
      -0.12023817002773285,
      0.10074411332607269,
      0.1342211216688156,
      -0.1599758416414261,
      0.15004099905490875,
      -0.1127132698893547,
      0.04205730929970741,
      0.19837577641010284,
      -0.10910378396511078,
      -0.08990368247032166,
      0.060293737798929214,
      -0.09402871876955032,
      -0.07806196808815002,
      -0.11762821674346924,
      0.015674646943807602,
      0.10465798527002335,
      0.031275875866413116,
      -0.025539711117744446,
      0.1573396921157837,
      0.13243426382541656
    ],
    [
      -0.10518715530633926,
      0.1043027713894844,
      -0.04684344679117203,
      0.08688205480575562,
      0.049174003303050995,
      0.06687367707490921,
      -0.07295845448970795,
      -0.07050802558660507,
      -0.105887770652771,
      -0.09894423186779022,
      -0.08462363481521606,
      0.028664415702223778,
      0.05920597165822983,
      0.03539665415883064,
      0.12127923220396042,
      0.15069706737995148,
      0.15221400558948517,
      0.10103857517242432,
      -0.0014645492192357779,
      0.07956695556640625,
      -0.08710265904664993,
      -0.014845714904367924,
      0.022934313863515854,
      -0.12731559574604034,
      0.13523870706558228,
      -0.008296913467347622,
      0.13041962683200836,
      0.07829549163579941,
      -0.11263813078403473,
      0.057704392820596695,
      -0.08837683498859406,
      -0.09249740093946457
    ],
    [
      0.06446608155965805,
      0.08357617259025574,
      -0.09518341720104218,
      -0.11905729025602341,
      0.10370132327079773,
      -0.05527098849415779,
      -0.1350274682044983,
      -0.1633916199207306,
      0.10701710730791092,
      0.11240718513727188,
      0.18321722745895386,
      -0.11991288512945175,
      0.012971618212759495,
      0.03270556405186653,
      0.02700738236308098,
      0.020490426570177078,
      -0.17214436829090118,
      -0.16161228716373444,
      -0.07313524186611176,
      -0.018474318087100983,
      0.011499578133225441,
      -0.008563879877328873,
      -0.18538305163383484,
      0.09377100318670273,
      -0.10975686460733414,
      0.011604921892285347,
      -0.12471062690019608,
      0.13264597952365875,
      0.15782006084918976,
      -0.09779421240091324,
      0.16137290000915527,
      -0.04822351410984993
    ],
    [
      -0.18045035004615784,
      -0.02538500912487507,
      -0.13955584168434143,
      0.06667172163724899,
      0.06408090889453888,
      -0.08801767975091934,
      -0.034625448286533356,
      0.06606706231832504,
      -0.10135219991207123,
      0.08757074177265167,
      -0.13868512213230133,
      0.09022554010152817,
      -0.0755644142627716,
      -0.14553403854370117,
      0.02408459596335888,
      0.03406457602977753,
      -0.12138466536998749,
      0.14676138758659363,
      -0.0636049136519432,
      0.15096452832221985,
      -0.04407820105552673,
      0.10130969434976578,
      -0.07607085257768631,
      -0.10625209659337997,
      -0.1533660739660263,
      -0.0600905641913414,
      -0.1012386679649353,
      0.07509563863277435,
      -0.13245436549186707,
      -0.024205828085541725,
      -0.07424455136060715,
      -0.07212121784687042
    ],
    [
      -0.011173331178724766,
      0.09370984137058258,
      -0.06550633907318115,
      -0.17914152145385742,
      0.0892454981803894,
      -0.09056735038757324,
      0.10334546118974686,
      -0.034677546471357346,
      -0.015143110416829586,
      0.14865095913410187,
      0.041367385536432266,
      -0.14422889053821564,
      -0.17978228628635406,
      -0.1677064299583435,
      -0.11856763064861298,
      0.04560542479157448,
      0.062334463000297546,
      0.10202941298484802,
      -0.16270411014556885,
      0.07157301157712936,
      0.1546318382024765,
      0.08925332874059677,
      -0.08074327558279037,
      -0.17220202088356018,
      0.18572492897510529,
      -0.014314449392259121,
      0.04386996850371361,
      0.013368027284741402,
      0.13737693428993225,
      -0.180690199136734,
      0.10150878131389618,
      -0.1136561930179596
    ],
    [
      0.17312780022621155,
      -0.14060625433921814,
      -0.032878629863262177,
      0.028265582397580147,
      0.02852478250861168,
      0.06994734704494476,
      -0.011025824584066868,
      0.033085595816373825,
      -0.112672358751297,
      -0.02720586769282818,
      0.05904491990804672,
      0.15623623132705688,
      -0.15292572975158691,
      -0.07100526988506317,
      -0.10793554782867432,
      -0.10848434269428253,
      -0.11307503283023834,
      -0.017854418605566025,
      0.06482443958520889,
      -0.06888218224048615,
      0.03248123079538345,
      -0.023007482290267944,
      -0.17984485626220703,
      0.004123218357563019,
      0.017378779128193855,
      -0.15156738460063934,
      -0.1657007485628128,
      0.04906458780169487,
      -0.031121239066123962,
      0.029738733544945717,
      -0.027839738875627518,
      -0.038311801850795746
    ],
    [
      -0.08126508444547653,
      0.17344073951244354,
      -0.16465158760547638,
      -0.01296755950897932,
      -0.01716536283493042,
      -0.07429859787225723,
      0.10838021337985992,
      0.17390140891075134,
      0.13972221314907074,
      -0.06874223053455353,
      -0.08695542067289352,
      0.05446866899728775,
      0.10510221868753433,
      -0.1461506485939026,
      -0.09195420891046524,
      -0.06495265662670135,
      -0.006218161899596453,
      -0.07245440781116486,
      -0.13691186904907227,
      0.005079706199467182,
      -0.03846606984734535,
      -0.006413893774151802,
      -0.0564294159412384,
      -0.06353260576725006,
      0.14698590338230133,
      -0.019038580358028412,
      0.09976425021886826,
      -0.12210123986005783,
      -0.09541204571723938,
      0.07868135720491409,
      0.022840391844511032,
      -0.13958147168159485
    ],
    [
      0.14570491015911102,
      -0.05127871409058571,
      0.006240408401936293,
      -0.05419498309493065,
      0.10478606075048447,
      0.0533255897462368,
      0.06523235887289047,
      -0.05321233347058296,
      0.18141569197177887,
      0.053124118596315384,
      0.09577181935310364,
      -0.02047191932797432,
      -0.1552494764328003,
      0.12588268518447876,
      -0.14711907505989075,
      -0.1910938322544098,
      0.0072051784954965115,
      -0.02516051195561886,
      -0.12723499536514282,
      0.10123261064291,
      0.015843817964196205,
      -0.06403438001871109,
      0.10411766171455383,
      0.04520396888256073,
      -0.12855292856693268,
      -0.060287974774837494,
      -0.14746206998825073,
      -0.09284821897745132,
      0.04856448993086815,
      0.04308449104428291,
      -0.05785411223769188,
      -0.0567513033747673
    ],
    [
      -0.1420566588640213,
      -0.1124601662158966,
      -0.005014259833842516,
      -0.02312280610203743,
      0.06989923864603043,
      0.1277889907360077,
      0.13768915832042694,
      0.01987026445567608,
      -0.12592065334320068,
      -0.06511402875185013,
      -0.14743389189243317,
      -1.1158759662066586e-05,
      0.08379900455474854,
      0.01830434426665306,
      0.09085746109485626,
      0.13319526612758636,
      0.08253969997167587,
      -0.027887215837836266,
      0.1610567718744278,
      0.06322725117206573,
      -0.13299638032913208,
      0.043011851608753204,
      0.07585708051919937,
      0.0398879311978817,
      0.17950023710727692,
      -0.14697210490703583,
      0.029716206714510918,
      0.17699657380580902,
      -0.094447061419487,
      -0.10104043036699295,
      0.13011842966079712,
      0.0944942831993103
    ],
    [
      0.1303069144487381,
      -0.027341429144144058,
      0.09852734953165054,
      -0.12230127304792404,
      -0.0722033753991127,
      0.01815112493932247,
      -0.10927382856607437,
      0.011103751137852669,
      -0.07037916034460068,
      0.18946267664432526,
      -0.06044168770313263,
      0.048250339925289154,
      0.042626090347766876,
      0.17248931527137756,
      -0.008138447999954224,
      0.11607199907302856,
      -0.11064979434013367,
      -0.1363043189048767,
      0.09181898832321167,
      0.1445486843585968,
      -0.08809928596019745,
      0.12447980791330338,
      0.06758242845535278,
      -0.08373203873634338,
      0.07604292035102844,
      0.2062617540359497,
      -0.05024567246437073,
      0.13161912560462952,
      -0.07055184990167618,
      -0.16003075242042542,
      -0.1498567759990692,
      -0.06495751440525055
    ],
    [
      0.17650137841701508,
      0.07108096778392792,
      0.15887422859668732,
      0.059698380529880524,
      -0.032495349645614624,
      -0.10595770180225372,
      -0.17797696590423584,
      -0.07440122216939926,
      -0.07271793484687805,
      0.1432340294122696,
      -0.03395204246044159,
      -0.007119730580598116,
      0.022901568561792374,
      0.14324352145195007,
      -0.0075783454813063145,
      0.0758896991610527,
      -0.1318247765302658,
      -0.1591569483280182,
      -0.026939664036035538,
      0.04628200829029083,
      0.10864950716495514,
      0.08285844326019287,
      0.12414568662643433,
      -0.12148407101631165,
      0.04949792101979256,
      0.11575371772050858,
      -0.1044558510184288,
      0.12814320623874664,
      -0.12600404024124146,
      0.10894367843866348,
      0.10299616307020187,
      0.16004441678524017
    ],
    [
      -0.01033717766404152,
      -0.013081472367048264,
      -0.09997034072875977,
      0.13333623111248016,
      -0.0349300280213356,
      -0.035768453031778336,
      -0.004276201128959656,
      0.07779766619205475,
      -0.08531871438026428,
      -0.15519747138023376,
      -0.035522039979696274,
      0.06663849949836731,
      0.00912920106202364,
      -0.04919632896780968,
      0.03295283019542694,
      -0.02999872714281082,
      0.12768924236297607,
      -0.09511971473693848,
      0.1701584756374359,
      -0.03214365988969803,
      0.12278261035680771,
      0.08828780055046082,
      -0.1422240436077118,
      0.11067196726799011,
      -0.05270157754421234,
      -0.14894475042819977,
      0.08229663968086243,
      0.03910788148641586,
      -0.072943314909935,
      -0.08893152326345444,
      0.1647159606218338,
      -0.17123407125473022
    ],
    [
      0.017831549048423767,
      0.006292011588811874,
      -0.14636512100696564,
      0.10488589853048325,
      -0.1306333988904953,
      -0.013907465152442455,
      -0.02293352410197258,
      0.11162891983985901,
      -0.04203997552394867,
      -0.15054456889629364,
      -0.02007216028869152,
      0.12776748836040497,
      -0.0944821834564209,
      0.15067525207996368,
      0.08992695063352585,
      -0.006551522761583328,
      0.002403487218543887,
      0.13897007703781128,
      0.0029890467412769794,
      0.05891754850745201,
      0.01587267592549324,
      -0.0017405266407877207,
      -0.14556238055229187,
      -0.08748161792755127,
      0.15534642338752747,
      0.13499990105628967,
      0.005112773738801479,
      0.16234548389911652,
      -0.08294250816106796,
      0.0805262103676796,
      -0.10115508735179901,
      0.13208366930484772
    ],
    [
      0.10541796684265137,
      0.059219155460596085,
      -0.00555799063295126,
      0.09080421179533005,
      0.06642380356788635,
      0.10097754001617432,
      -0.0835561528801918,
      -0.009221449494361877,
      -0.03558201342821121,
      -0.11960605531930923,
      0.05266823247075081,
      0.16521573066711426,
      0.09624073654413223,
      -0.04972420632839203,
      0.11037056893110275,
      -0.028988124802708626,
      0.15876129269599915,
      -0.1669786274433136,
      0.049245283007621765,
      -0.19100219011306763,
      0.08072549104690552,
      0.1445799171924591,
      0.12700656056404114,
      -0.07586468756198883,
      0.02400406077504158,
      0.014686067588627338,
      -0.057105086743831635,
      0.16997137665748596,
      0.13730576634407043,
      0.08291377127170563,
      -0.06247556582093239,
      0.1277715414762497
    ],
    [
      -0.09836017340421677,
      -0.1408880054950714,
      -0.061216797679662704,
      0.012823441065847874,
      0.1407216191291809,
      0.06327825039625168,
      0.07944733649492264,
      -0.04011834040284157,
      0.13286210596561432,
      0.18305642902851105,
      -0.15974660217761993,
      0.14643985033035278,
      0.04285291209816933,
      0.06355590373277664,
      0.059644389897584915,
      0.1179380789399147,
      0.01150899101048708,
      -0.053811509162187576,
      -0.06078792363405228,
      -0.07923220098018646,
      -0.005295196548104286,
      -0.11562515050172806,
      0.1142706423997879,
      -0.11054936796426773,
      0.1449698954820633,
      -0.12627343833446503,
      0.14261357486248016,
      0.014710922725498676,
      -0.18188853561878204,
      0.05850839242339134,
      -0.12343042343854904,
      -0.14517611265182495
    ],
    [
      0.01602036878466606,
      -0.048827141523361206,
      0.046414703130722046,
      0.10917989164590836,
      -0.19289907813072205,
      0.18456999957561493,
      -0.11875037848949432,
      -0.04988432303071022,
      0.12529334425926208,
      -0.09330564737319946,
      -0.07539720833301544,
      -0.027792759239673615,
      0.06257516890764236,
      -0.004574514459818602,
      0.16951966285705566,
      0.059167761355638504,
      -0.16877047717571259,
      -0.12057682126760483,
      0.019300080835819244,
      -0.043007802218198776,
      -0.061251766979694366,
      0.07745980471372604,
      0.06674301624298096,
      -0.12317895889282227,
      -0.0279440525919199,
      0.029148276895284653,
      0.06485041975975037,
      -0.013968326151371002,
      0.10648953914642334,
      0.06096098572015762,
      -0.1572016328573227,
      -0.16724148392677307
    ],
    [
      -0.002580201718956232,
      0.06345854699611664,
      -0.13191352784633636,
      -0.061561547219753265,
      -0.13934552669525146,
      0.023584727197885513,
      0.1445513814687729,
      0.17055456340312958,
      -0.14880532026290894,
      0.15150180459022522,
      -0.07885020971298218,
      -0.16872945427894592,
      0.12181981652975082,
      0.1502753347158432,
      -0.018764587119221687,
      -0.0353255495429039,
      0.031095143407583237,
      0.07447094470262527,
      0.08161035925149918,
      -0.05460121110081673,
      0.0077760592103004456,
      0.031688496470451355,
      0.0345979705452919,
      0.053432174026966095,
      0.031318534165620804,
      0.07723184674978256,
      0.0911349356174469,
      -0.09501155465841293,
      0.13047438859939575,
      -0.03988904878497124,
      -0.15394504368305206,
      0.11220530420541763
    ],
    [
      -0.10557951033115387,
      -0.17730438709259033,
      -0.010155345313251019,
      0.14316464960575104,
      -0.16109734773635864,
      0.046237822622060776,
      -0.15037749707698822,
      0.06111065298318863,
      0.12308419495820999,
      -0.04062340781092644,
      -0.15151150524616241,
      -0.1216498613357544,
      -0.11536260694265366,
      -0.0676967054605484,
      -0.07680588215589523,
      0.0653066486120224,
      0.032607391476631165,
      -0.134636789560318,
      0.022220969200134277,
      -0.19863103330135345,
      0.1255328208208084,
      0.001579335075803101,
      0.15807165205478668,
      0.1246776133775711,
      -0.09418611228466034,
      0.10808262228965759,
      -0.1472090184688568,
      -0.15937209129333496,
      0.13116022944450378,
      -0.09526858478784561,
      -0.12158672511577606,
      -0.11064373701810837
    ],
    [
      -0.0944441705942154,
      -0.15859350562095642,
      0.027773192152380943,
      -0.18016113340854645,
      -0.07808437198400497,
      0.12011609971523285,
      -0.1518111377954483,
      0.1076599657535553,
      0.1797005981206894,
      -0.04107258468866348,
      -0.01369905099272728,
      -0.15638823807239532,
      0.1567048728466034,
      0.1403772234916687,
      -0.010381245985627174,
      0.09126252681016922,
      -0.16363579034805298,
      -0.11219336092472076,
      0.16654567420482635,
      -0.20981241762638092,
      -0.020681926980614662,
      -0.07880021631717682,
      -0.1748213917016983,
      0.013309338130056858,
      -0.0691843181848526,
      0.005214198492467403,
      -0.06216319277882576,
      0.06325408816337585,
      0.03766598924994469,
      -0.18033260107040405,
      0.12140581756830215,
      0.11366628110408783
    ],
    [
      -0.12656952440738678,
      0.0497194342315197,
      -0.07766714692115784,
      0.09162350744009018,
      -0.1149158626794815,
      0.1211264356970787,
      -0.12904183566570282,
      -0.10963206738233566,
      0.07712342590093613,
      0.03268500789999962,
      -0.07233380526304245,
      0.14348314702510834,
      0.02496333047747612,
      0.08279495686292648,
      -0.09480707347393036,
      0.026783501729369164,
      0.03341970220208168,
      0.11162393540143967,
      0.1633674055337906,
      0.07742892950773239,
      0.17169174551963806,
      -0.05991463363170624,
      -0.15491242706775665,
      0.01413725782185793,
      0.006030540447682142,
      -0.05715595558285713,
      -0.13769112527370453,
      -0.0007167058647610247,
      0.02154538594186306,
      0.10268997400999069,
      0.09503750503063202,
      0.035143595188856125
    ],
    [
      0.13463033735752106,
      -0.022263281047344208,
      0.14922618865966797,
      -0.1917920857667923,
      -0.036208849400281906,
      -0.06714948266744614,
      0.09441845118999481,
      -0.06618106365203857,
      -0.11306953430175781,
      -0.04737188667058945,
      0.010297643952071667,
      0.13471479713916779,
      0.08729146420955658,
      -0.16164973378181458,
      -0.06296303123235703,
      -0.10420025885105133,
      -0.02021085098385811,
      0.08875084668397903,
      -0.02512393705546856,
      0.12624335289001465,
      0.016720253974199295,
      0.11794561892747879,
      -0.05335496366024017,
      0.08324775844812393,
      0.08009663969278336,
      -0.025435920804739,
      -0.000586412032134831,
      0.0845981016755104,
      0.04383494332432747,
      -0.1180076077580452,
      -0.042842596769332886,
      -0.10988683253526688
    ],
    [
      0.03650778904557228,
      0.1354459673166275,
      -0.10584164410829544,
      0.08263696730136871,
      -0.1129489466547966,
      0.0664205253124237,
      -0.15699757635593414,
      -0.06081786006689072,
      -0.0032595908269286156,
      -0.022214168682694435,
      0.0964907631278038,
      -0.07862335443496704,
      0.06424422562122345,
      0.0798380970954895,
      0.04198466241359711,
      -0.16176480054855347,
      -0.0920480266213417,
      -0.04909726604819298,
      -0.0017266991781070828,
      0.1012456938624382,
      0.12406711280345917,
      0.025992847979068756,
      -0.11509200185537338,
      -0.16661261022090912,
      0.15239182114601135,
      0.024835698306560516,
      -0.16079464554786682,
      -0.05268920958042145,
      0.0581074021756649,
      -0.0013993850443512201,
      0.11012281477451324,
      -0.03422575071454048
    ],
    [
      0.030885247513651848,
      0.1626901775598526,
      -0.1509588062763214,
      -0.012388911098241806,
      -0.1740017533302307,
      -0.10901276022195816,
      -0.18244285881519318,
      0.07262585312128067,
      -0.029611872509121895,
      0.04870687052607536,
      0.028362944722175598,
      0.07093769311904907,
      -0.1570710390806198,
      -0.0644318088889122,
      -0.0385156087577343,
      -0.14407292008399963,
      0.06602942198514938,
      0.1090058758854866,
      -0.06374840438365936,
      -0.1551196426153183,
      -0.09402009099721909,
      -0.14762617647647858,
      -0.12425103038549423,
      -0.06585127115249634,
      0.0382608138024807,
      -0.11509604007005692,
      -0.14015009999275208,
      0.0947318822145462,
      0.15732742846012115,
      0.0027371887117624283,
      -0.0150526724755764,
      -0.07294325530529022
    ],
    [
      0.06649510562419891,
      0.010601933114230633,
      -0.07446986436843872,
      0.09161172807216644,
      0.07436652481555939,
      0.140788733959198,
      0.10593884438276291,
      -0.11895300447940826,
      0.16602562367916107,
      -0.018034376204013824,
      -0.1552364081144333,
      0.12525536119937897,
      -0.12242625653743744,
      -0.08535874634981155,
      0.044435299932956696,
      0.10997530817985535,
      0.018985575065016747,
      -0.14232668280601501,
      -0.1208733394742012,
      0.031058913096785545,
      -0.04966586455702782,
      0.06524528563022614,
      0.14482049643993378,
      -0.13151022791862488,
      -0.14341452717781067,
      -0.0894269123673439,
      -0.008632191456854343,
      -0.053706344217061996,
      0.18835841119289398,
      -0.1116933673620224,
      0.11259292811155319,
      0.07416633516550064
    ],
    [
      0.17310555279254913,
      -0.17396895587444305,
      0.1365172564983368,
      -0.08733545243740082,
      -0.09339838474988937,
      0.01809757761657238,
      0.10111028701066971,
      0.07393642514944077,
      -0.09670745581388474,
      0.024994930252432823,
      0.0024290760047733784,
      0.0739302858710289,
      -0.010493960231542587,
      -0.0461796335875988,
      0.09372751414775848,
      0.13253134489059448,
      0.08298749476671219,
      -0.04774044454097748,
      0.0024115608539432287,
      -0.0009227207629010081,
      -0.10489252954721451,
      0.1698608249425888,
      0.08224403858184814,
      0.057594649493694305,
      0.17470863461494446,
      -0.05488259345293045,
      0.13916520774364471,
      -0.014037784188985825,
      0.16124463081359863,
      -0.11327764391899109,
      -0.16068893671035767,
      0.09775036573410034
    ],
    [
      0.053221769630908966,
      -0.16346898674964905,
      0.07072853296995163,
      -0.011753720231354237,
      0.09803352504968643,
      0.15201453864574432,
      0.1529136300086975,
      0.017445877194404602,
      0.08625537157058716,
      -0.1548813134431839,
      0.00997750274837017,
      0.046691037714481354,
      0.09795081615447998,
      0.06731334328651428,
      0.11015325784683228,
      0.02448258176445961,
      0.06551717221736908,
      -0.18112313747406006,
      -0.08246707171201706,
      0.11390656232833862,
      0.059927232563495636,
      0.06225515902042389,
      0.07938814908266068,
      -0.1386914998292923,
      0.05056946724653244,
      -0.026959523558616638,
      -0.033870600163936615,
      -0.019665783271193504,
      0.13679642975330353,
      0.1641516536474228,
      0.07918433099985123,
      -0.07447947561740875
    ],
    [
      0.057414710521698,
      0.058375757187604904,
      0.13919538259506226,
      -0.008279223926365376,
      -0.18905945122241974,
      0.07659639418125153,
      -0.1485871821641922,
      0.015454169362783432,
      0.11659570038318634,
      0.06594575196504593,
      0.16996432840824127,
      0.1775168627500534,
      -0.16662198305130005,
      0.0024739725049585104,
      0.05656225234270096,
      -0.04325630143284798,
      -0.09640223532915115,
      0.17527897655963898,
      -0.10711659491062164,
      -0.19583848118782043,
      -0.161307692527771,
      -0.08711659908294678,
      0.013357890769839287,
      0.11113813519477844,
      -0.005824178457260132,
      -0.16089139878749847,
      0.13436226546764374,
      -0.009507882408797741,
      -0.055394966155290604,
      -0.008843707852065563,
      0.08249130100011826,
      -0.01865217089653015
    ],
    [
      0.059623733162879944,
      0.07697734236717224,
      -0.12327045947313309,
      0.19014067947864532,
      0.14843708276748657,
      -0.0201017577201128,
      0.13309313356876373,
      -0.032435718923807144,
      -0.04439456760883331,
      0.0916060134768486,
      -0.14146552979946136,
      -0.05815011262893677,
      -0.1077953651547432,
      -0.01360655389726162,
      -0.08124742656946182,
      -0.040427304804325104,
      -0.028029512614011765,
      0.12613388895988464,
      0.04269130527973175,
      -0.13604621589183807,
      -0.11944527179002762,
      -0.03341710567474365,
      0.06898269802331924,
      0.1294020414352417,
      0.15114443004131317,
      -0.08755873143672943,
      0.16196198761463165,
      0.11269481480121613,
      -0.15909476578235626,
      -0.1391260176897049,
      -0.14966566860675812,
      -0.002390060108155012
    ],
    [
      -0.04691477492451668,
      -0.16961680352687836,
      -0.0562320277094841,
      0.14038677513599396,
      0.01713143102824688,
      -0.15103691816329956,
      -0.09977742284536362,
      0.07992522418498993,
      0.05064095929265022,
      -0.06181008368730545,
      -0.15262757241725922,
      0.06203567981719971,
      -0.08595167100429535,
      -0.15294350683689117,
      0.1523360162973404,
      0.08649348467588425,
      -0.020899662747979164,
      0.01738455705344677,
      0.14362789690494537,
      -0.1226666271686554,
      -0.03347434848546982,
      -0.07950781285762787,
      -0.16264478862285614,
      0.16654115915298462,
      -0.17608346045017242,
      -0.04091392830014229,
      0.08504731953144073,
      0.15453456342220306,
      -0.062445640563964844,
      0.15207836031913757,
      -0.013559408485889435,
      -0.16864554584026337
    ],
    [
      -0.15602390468120575,
      -0.08584683388471603,
      0.005308212712407112,
      0.11511553078889847,
      -0.10383136570453644,
      -0.01733662374317646,
      0.10589106380939484,
      -0.05733072757720947,
      0.08018308877944946,
      -0.028559662401676178,
      -0.0622202567756176,
      -0.10159437358379364,
      0.1648789495229721,
      -0.09754010289907455,
      0.028073327615857124,
      0.04622238129377365,
      0.023561418056488037,
      -0.005547523032873869,
      -0.03500381484627724,
      -0.10772687196731567,
      0.06032783165574074,
      -0.03497777879238129,
      0.056677836924791336,
      0.07573146373033524,
      0.07180142402648926,
      -0.11245300620794296,
      -0.11637293547391891,
      -0.04241424798965454,
      0.0720142349600792,
      0.012998916208744049,
      0.18285129964351654,
      0.12511833012104034
    ],
    [
      -0.07360946387052536,
      0.1239175796508789,
      -0.09449083358049393,
      -0.08997101336717606,
      0.10060776025056839,
      -0.11933702230453491,
      -0.06660518050193787,
      -0.16016435623168945,
      0.08744914084672928,
      0.11065512150526047,
      0.1642172485589981,
      -0.04768645018339157,
      -0.1396741420030594,
      0.09152467548847198,
      -0.10394630581140518,
      -0.07535746693611145,
      -0.15508992969989777,
      0.14695750176906586,
      -0.01748552918434143,
      -0.01108122430741787,
      0.008151067420840263,
      0.04328642040491104,
      -0.08707087486982346,
      0.15549629926681519,
      -0.1507701426744461,
      -0.0540572926402092,
      -0.09811297059059143,
      -0.11466465890407562,
      0.11178812384605408,
      0.12385827302932739,
      0.0942421481013298,
      0.05841226130723953
    ]
  ],
  "layers.1.bias": [
    0.12409283220767975,
    0.08668915182352066,
    -0.05961814895272255,
    -0.06721210479736328,
    0.04447806254029274,
    0.12049730122089386,
    0.126249298453331,
    -0.008667412213981152,
    0.1849265843629837,
    -0.11881163716316223,
    0.0653078630566597,
    0.15983884036540985,
    0.01905081234872341,
    0.09999097883701324,
    0.16241554915905,
    -0.14447183907032013,
    0.12043435871601105,
    0.07423485070466995,
    0.09914947301149368,
    0.09548027068376541,
    0.11369345337152481,
    0.06576564908027649,
    0.0927867740392685,
    -0.15244349837303162,
    -0.16801780462265015,
    0.10350333154201508,
    0.16886135935783386,
    -0.04810156300663948,
    0.12689350545406342,
    -0.02706579864025116,
    0.09672056883573532,
    -0.006126777734607458
  ],
  "layers.2.weight": [
    [
      0.09937967360019684,
      -0.06813870370388031,
      -0.1496821641921997,
      0.11765288561582565,
      -0.07646258175373077,
      0.13680517673492432,
      0.03157797083258629,
      -0.07538137584924698,
      0.16419045627117157,
      0.15923739969730377,
      -0.0818018838763237,
      0.07434865832328796,
      0.03278164565563202,
      -0.09798886626958847,
      0.035842735320329666,
      -0.16581477224826813,
      0.04824020713567734,
      -0.1694466471672058,
      0.1390417218208313,
      0.1148957684636116,
      0.15512624382972717,
      0.04061949625611305,
      -0.05565261468291283,
      0.09256328642368317,
      0.0752023383975029,
      0.1028764545917511,
      -0.011005612090229988,
      0.19026190042495728,
      -0.11071285605430603,
      -0.16144345700740814,
      0.0243544802069664,
      0.15820404887199402
    ]
  ],
  "layers.2.bias": [
    0.03535908833146095
  ]
}