{
  "params": {
    "conv1.weight": [
      [
        [
          [
            0.03520980477333069,
            0.06292015314102173,
            -0.005354400258511305
          ],
          [
            -0.0014583009760826826,
            0.016554241999983788,
            0.04882240295410156
          ],
          [
            0.03410421684384346,
            0.07521715015172958,
            0.03058176301419735
          ]
        ]
      ],
      [
        [
          [
            0.00033654793514870107,
            -0.029824886471033096,
            -0.02366861328482628
          ],
          [
            -0.05254051461815834,
            -0.04105806723237038,
            -0.02733023092150688
          ],
          [
            0.006351327523589134,
            0.01994568109512329,
            0.030961571261286736
          ]
        ]
      ]
    ],
    "conv1.bias": [
      -0.0004508764250203967,
      0.001761845895089209
    ],
    "conv2.weight": [
      [
        [
          [
            0.05185828357934952,
            0.07548739016056061,
            0.015416881069540977
          ],
          [
            0.06950849294662476,
            0.0244804285466671,
            0.030654584988951683
          ],
          [
            -0.0016486593522131443,
            -0.10133466124534607,
            -0.07536082714796066
          ]
        ],
        [
          [
            -0.03427550941705704,
            -0.04647219553589821,
            0.026224328204989433
          ],
          [
            -0.04629975184798241,
            -0.00979051273316145,
            -0.01656177267432213
          ],
          [
            -0.06710594147443771,
            -0.04212796688079834,
            0.042979903519153595
          ]
        ]
      ],
      [
        [
          [
            0.051902201026678085,
            0.05695423111319542,
            0.02977938950061798
          ],
          [
            0.003411591984331608,
            0.04252072051167488,
            -0.018507443368434906
          ],
          [
            -0.035627394914627075,
            -0.03820320963859558,
            0.019109854474663734
          ]
        ],
        [
          [
            0.05256794020533562,
            -0.025796091184020042,
            -0.006318076513707638
          ],
          [
            0.055798280984163284,
            0.046108197420835495,
            0.039044030010700226
          ],
          [
            0.005065492354333401,
            0.02248458005487919,
            -0.027683155611157417
          ]
        ]
      ]
    ],
    "conv2.bias": [
      0.04227004572749138,
      -0.006740996614098549
    ],
    "fc.weight": [
      [
        -0.009550836868584156,
        0.023702403530478477,
        0.07957794517278671,
        0.07638810575008392,
        0.013156547211110592,
        0.022771526128053665,
        0.07900229841470718,
        0.04764141887426376
      ],
      [
        0.021536139771342278,
        0.013663272373378277,
        0.03340586647391319,
        0.04973483830690384,
        -0.03681893274188042,
        -0.0047911168076097965,
        0.012294745072722435,
        0.039174601435661316
      ]
    ],
    "fc.bias": [
      0.08506204932928085,
      0.058408159762620926
    ]
  },
  "meta": {
    "format": "Gondolin.CNN2",
    "dtype": "float32"
  }
}