{
  "format": "digits_linear_weights_v0_1",
  "in_dim": 64,
  "out_dim": 10,
  "normalize_div": 16.0,
  "layers.0.weight": [
    [
      -0.0009358525276184082,
      -0.04142650589346886,
      -0.6792255640029907,
      0.8443235754966736,
      -0.09368747472763062,
      -2.2123613357543945,
      -2.6426146030426025,
      -1.5006884336471558,
      -1.05272376537323,
      -0.7856010794639587,
      -0.3789594769477844,
      0.8232671618461609,
      0.8714191317558289,
      0.7999922037124634,
      -1.2775084972381592,
      -1.6407771110534668,
      -0.25445741415023804,
      0.7903846502304077,
      0.7946860194206238,
      0.1451627016067505,
      -3.1762030124664307,
      1.590699553489685,
      1.4009877443313599,
      -1.0927530527114868,
      -0.02014791965484619,
      1.231492280960083,
      1.0615822076797485,
      -1.836486577987671,
      -3.3359317779541016,
      0.15757593512535095,
      1.2557998895645142,
      -0.599062979221344,
      -0.08102245628833771,
      1.4773637056350708,
      1.03593111038208,
      -2.0985937118530273,
      -2.7229435443878174,
      0.06809714436531067,
      0.8040307760238647,
      0.060584068298339844,
      -0.686896562576294,
      -0.24490904808044434,
      1.8724377155303955,
      -1.616552472114563,
      -1.5662330389022827,
      0.5707541108131409,
      0.4702693819999695,
      -0.7142326831817627,
      -0.7447254061698914,
      -3.0786473751068115,
      0.908762514591217,
      0.3572692573070526,
      1.281851053237915,
      0.2921455204486847,
      -0.9362850785255432,
      -1.871238112449646,
      -0.33577272295951843,
      -0.7113934755325317,
      -0.9326649308204651,
      1.2234852313995361,
      -0.4764896035194397,
      -0.9221765398979187,
      -1.0545363426208496,
      -1.7683762311935425
    ],
    [
      0.06862150132656097,
      -1.7311530113220215,
      -0.8506059050559998,
      -0.5786975026130676,
      -3.2126176357269287,
      1.918413758277893,
      -0.2593689560890198,
      -3.3509397506713867,
      -2.1546380519866943,
      -4.106976509094238,
      -2.887924909591675,
      -1.0486875772476196,
      1.1568635702133179,
      0.008201932534575462,
      -2.7857718467712402,
      -2.7833476066589355,
      -1.281055212020874,
      1.737025499343872,
      -0.30449753999710083,
      2.912400245666504,
      2.6475017070770264,
      -0.86788409948349,
      0.2292906641960144,
      -1.6670933961868286,
      0.04806952178478241,
      -1.092941403388977,
      0.7724090814590454,
      0.7219222187995911,
      1.6815980672836304,
      0.9109926223754883,
      -0.8494024276733398,
      -0.6323280930519104,
      0.06241437792778015,
      -0.29459628462791443,
      1.0445303916931152,
      -0.30527809262275696,
      0.782063901424408,
      0.6102238893508911,
      -1.2365511655807495,
      -0.03146059811115265,
      -0.5071156620979309,
      -2.812551736831665,
      -0.7306197285652161,
      1.6266212463378906,
      0.5838395953178406,
      -1.5064289569854736,
      -2.87835955619812,
      -4.559179782867432,
      -1.653838872909546,
      -0.929040789604187,
      -0.47849801182746887,
      0.969894528388977,
      1.1793584823608398,
      0.08167161047458649,
      -0.582000732421875,
      3.3315818309783936,
      -1.517566204071045,
      -1.6573539972305298,
      -1.3593692779541016,
      -0.6563720107078552,
      0.11059851944446564,
      0.7136214971542358,
      1.3908159732818604,
      2.0444114208221436
    ],
    [
      -0.04372917115688324,
      0.563633382320404,
      0.29195839166641235,
      0.8547314405441284,
      0.7092239260673523,
      -0.7198145389556885,
      -1.977225661277771,
      -0.7736564874649048,
      -2.70029616355896,
      2.623779535293579,
      0.8928167819976807,
      -0.1143006980419159,
      1.9368886947631836,
      -0.48487329483032227,
      -0.9802601337432861,
      -0.9579047560691833,
      -1.2309701442718506,
      -0.39193469285964966,
      -0.9021483063697815,
      -2.822624444961548,
      0.8683561086654663,
      -0.5781397819519043,
      1.1580488681793213,
      -0.40744486451148987,
      -0.025354593992233276,
      -4.228325366973877,
      -3.4377880096435547,
      -3.851151943206787,
      -1.0602697134017944,
      0.16492795944213867,
      -0.6589255928993225,
      -0.2531554400920868,
      -0.024076908826828003,
      -1.9396064281463623,
      -3.1936304569244385,
      -1.6593356132507324,
      0.38409364223480225,
      -2.533360719680786,
      -3.5200767517089844,
      0.047087401151657104,
      -0.3495599329471588,
      1.0524555444717407,
      0.4212433397769928,
      2.977276563644409,
      -2.8046481609344482,
      -2.981109142303467,
      -1.845947504043579,
      1.9975247383117676,
      1.1051007509231567,
      0.9092882871627808,
      0.6204437017440796,
      3.0532329082489014,
      2.1228742599487305,
      2.356907367706299,
      1.4611891508102417,
      0.39241912961006165,
      1.2172454595565796,
      1.0260576009750366,
      0.8312625288963318,
      0.5429505705833435,
      0.3365708887577057,
      2.1473567485809326,
      1.7791376113891602,
      1.411825180053711
    ],
    [
      -0.08817228674888611,
      2.833860397338867,
      -0.4681432247161865,
      0.7816314101219177,
      2.3312010765075684,
      0.7703421115875244,
      -0.03403053432703018,
      -0.4728643596172333,
      -3.2242119312286377,
      1.1136518716812134,
      0.7582171559333801,
      0.025609973818063736,
      0.9810651540756226,
      0.9763584136962891,
      2.6837291717529297,
      0.901913583278656,
      -3.9647021293640137,
      -0.2464524507522583,
      -3.3732988834381104,
      -3.7427637577056885,
      0.7664814591407776,
      -1.3290185928344727,
      -1.4387519359588623,
      -0.5963575839996338,
      -0.09777563810348511,
      -0.9129549264907837,
      -2.950924873352051,
      -1.0231190919876099,
      1.6042760610580444,
      -3.661733865737915,
      -4.164200305938721,
      -0.19332219660282135,
      -0.10832624137401581,
      -2.2231876850128174,
      -1.7396842241287231,
      -0.33093535900115967,
      1.4748802185058594,
      0.09083548188209534,
      0.4218595623970032,
      0.10310094058513641,
      -0.1786055713891983,
      -1.1564812660217285,
      -2.2384660243988037,
      -3.260267734527588,
      0.46252354979515076,
      1.8464844226837158,
      2.0714914798736572,
      -3.058443784713745,
      -0.34028246998786926,
      -0.4744001626968384,
      -0.20191122591495514,
      -1.0623505115509033,
      0.822848379611969,
      1.4030165672302246,
      2.4406509399414062,
      -2.9054388999938965,
      -0.4766036570072174,
      1.1301695108413696,
      1.3081690073013306,
      0.7731711864471436,
      0.4517613351345062,
      0.4243694543838501,
      -0.19235725700855255,
      -2.5755455493927
    ],
    [
      -0.12389354407787323,
      -2.5073909759521484,
      -1.236018419265747,
      -2.1200881004333496,
      -1.6096240282058716,
      -2.365572690963745,
      -3.5058276653289795,
      1.7719321250915527,
      -0.7633348703384399,
      -0.16169364750385284,
      -0.9732244610786438,
      -0.9677948355674744,
      -2.84722638130188,
      -1.6781220436096191,
      -2.258692502975464,
      0.1852111667394638,
      -0.3662793040275574,
      -1.1768722534179688,
      1.2733879089355469,
      1.2972412109375,
      0.5167443752288818,
      0.5103806853294373,
      1.5107890367507935,
      1.698588490486145,
      0.003982290625572205,
      1.162046194076538,
      1.9534411430358887,
      -0.14997543394565582,
      0.21889951825141907,
      0.4127238988876343,
      3.794027328491211,
      2.4136645793914795,
      -0.028584524989128113,
      1.4832937717437744,
      1.0628770589828491,
      -1.1120085716247559,
      2.223158121109009,
      1.3804117441177368,
      2.97660756111145,
      -0.0770537257194519,
      0.6298927664756775,
      3.1530773639678955,
      0.3300842344760895,
      2.8423967361450195,
      2.6177175045013428,
      1.040089726448059,
      0.9832145571708679,
      -1.435760736465454,
      0.38121575117111206,
      4.058438777923584,
      -2.492363452911377,
      0.5200762152671814,
      0.7944525480270386,
      -2.044144868850708,
      -2.262556791305542,
      -1.0771044492721558,
      -0.8620138764381409,
      -4.271228313446045,
      -0.901246964931488,
      -2.2610836029052734,
      -1.3813025951385498,
      -1.3775187730789185,
      -1.4923514127731323,
      -0.7038930058479309
    ],
    [
      0.010441437363624573,
      1.8386775255203247,
      2.8421437740325928,
      -0.794934093952179,
      -0.23286421597003937,
      2.3358514308929443,
      3.5265772342681885,
      -1.5037167072296143,
      -0.16558773815631866,
      -0.9216371178627014,
      1.3311930894851685,
      1.075960636138916,
      -0.5921452641487122,
      -1.1981614828109741,
      -0.4358375370502472,
      -1.9191030263900757,
      -1.0519951581954956,
      0.36214491724967957,
      1.7184497117996216,
      -0.5522791743278503,
      -3.266190767288208,
      -3.1938204765319824,
      -4.786061763763428,
      -1.4919016361236572,
      -0.07522237300872803,
      1.3280959129333496,
      2.0288877487182617,
      0.00108350720256567,
      1.1780468225479126,
      -1.1901792287826538,
      -3.5395596027374268,
      -0.3429422080516815,
      -0.02249257266521454,
      -0.236589252948761,
      0.5520809292793274,
      -1.3240814208984375,
      -1.0811594724655151,
      0.5770076513290405,
      1.5530859231948853,
      0.028231874108314514,
      -0.324802964925766,
      -3.9375529289245605,
      -1.7724965810775757,
      -1.907842993736267,
      -1.2244608402252197,
      1.1570881605148315,
      0.37780123949050903,
      -2.121354579925537,
      -0.40830421447753906,
      -1.2717245817184448,
      -0.9181244969367981,
      -0.637123167514801,
      0.003005267819389701,
      0.2213965207338333,
      -2.091508626937866,
      -2.248246669769287,
      -0.1754000037908554,
      0.9196932315826416,
      2.599155902862549,
      1.5566881895065308,
      0.14307819306850433,
      -0.2653440237045288,
      -1.2273564338684082,
      -3.6229310035705566
    ],
    [
      0.041352346539497375,
      -1.301116943359375,
      -1.6855419874191284,
      -0.4959568977355957,
      -1.11380934715271,
      -1.2840524911880493,
      -1.2995158433914185,
      -0.45939862728118896,
      -0.7731356024742126,
      -2.841759204864502,
      -1.2476658821105957,
      0.38960447907447815,
      -2.7810585498809814,
      -1.1812827587127686,
      -0.10762165486812592,
      -0.4390435516834259,
      -0.42782431840896606,
      -2.002859354019165,
      1.3067103624343872,
      0.1883765459060669,
      -2.313410520553589,
      -2.808833360671997,
      -1.4985462427139282,
      -0.5166574716567993,
      -0.04556135833263397,
      1.8163137435913086,
      0.5084453821182251,
      0.48718327283859253,
      -0.9122052788734436,
      -1.2115689516067505,
      -2.374246120452881,
      -0.44053834676742554,
      -0.033930644392967224,
      2.159022569656372,
      1.434994101524353,
      1.0614933967590332,
      -0.4562886953353882,
      0.2598312795162201,
      0.6866252422332764,
      0.05993589758872986,
      -0.9613186717033386,
      -1.3640011548995972,
      2.3845818042755127,
      0.5080804824829102,
      1.104051947593689,
      1.3248929977416992,
      0.9919679164886475,
      1.857439398765564,
      -0.32939210534095764,
      -2.7298476696014404,
      1.798336148262024,
      1.1205620765686035,
      -0.7002479434013367,
      1.7457584142684937,
      0.8368753790855408,
      -3.867138385772705,
      -0.387378990650177,
      -1.4002628326416016,
      -2.0819625854492188,
      -0.7249882817268372,
      0.3974510133266449,
      1.5716811418533325,
      -0.13580861687660217,
      -3.5732595920562744
    ],
    [
      0.005700364708900452,
      1.3032753467559814,
      0.8118441700935364,
      0.5738719701766968,
      1.0483344793319702,
      0.6865048408508301,
      1.4727230072021484,
      0.5929404497146606,
      -0.46907928586006165,
      1.4234405755996704,
      0.9466524124145508,
      0.8299906253814697,
      3.0604588985443115,
      -0.0952344760298729,
      0.2389252483844757,
      1.5355970859527588,
      -0.23199377954006195,
      -2.583242416381836,
      -1.9497281312942505,
      -2.3494839668273926,
      0.04330654814839363,
      0.8294445872306824,
      1.1752427816390991,
      -0.14843279123306274,
      0.07187862694263458,
      -2.2922580242156982,
      -0.03786572068929672,
      -2.7572383880615234,
      -0.13050727546215057,
      1.373616099357605,
      0.9882136583328247,
      -2.5565080642700195,
      -0.08824151754379272,
      1.3577018976211548,
      0.043511442840099335,
      0.05982343852519989,
      1.2055505514144897,
      2.282149076461792,
      3.206287384033203,
      0.06916782259941101,
      -0.31630417704582214,
      -1.4576822519302368,
      -0.39238643646240234,
      1.0373272895812988,
      1.1521763801574707,
      -0.6697092056274414,
      -0.6070834398269653,
      -0.5161420106887817,
      -0.5864129066467285,
      -2.6799678802490234,
      -0.4597643315792084,
      0.6532633900642395,
      -2.498098373413086,
      -2.8406567573547363,
      -1.5714529752731323,
      -0.6504439115524292,
      -0.41891464591026306,
      0.9748786687850952,
      0.49758315086364746,
      -2.0377068519592285,
      -2.11489200592041,
      -2.7868480682373047,
      -1.9058998823165894,
      -0.8295795917510986
    ],
    [
      -0.03468182682991028,
      -4.127553939819336,
      -0.2673076391220093,
      -1.1428489685058594,
      -0.1227952390909195,
      -0.47737884521484375,
      -3.940161943435669,
      -1.520965814590454,
      3.373403310775757,
      -0.48343297839164734,
      0.7354161143302917,
      -0.38668301701545715,
      -1.4796133041381836,
      1.6235404014587402,
      0.7885695695877075,
      -1.6733925342559814,
      2.5599451065063477,
      1.1055197715759277,
      0.9004769325256348,
      -0.4750804305076599,
      0.018509915098547935,
      1.4701625108718872,
      1.2167251110076904,
      -1.0201231241226196,
      -0.03186298906803131,
      -0.23146437108516693,
      -0.4539792835712433,
      2.626035690307617,
      -0.7963155508041382,
      -0.7156570553779602,
      -1.0378484725952148,
      -0.7380639910697937,
      0.01717318594455719,
      -1.6772090196609497,
      -1.069692611694336,
      2.2422592639923096,
      0.7863951921463013,
      -1.6008504629135132,
      -4.607796669006348,
      -0.11983264982700348,
      -0.2539103627204895,
      0.7700083255767822,
      1.6792720556259155,
      1.0203568935394287,
      0.4577787518501282,
      0.9392136335372925,
      0.07369650155305862,
      -1.5975476503372192,
      -1.7041847705841064,
      0.07614918798208237,
      1.304006576538086,
      -2.593862533569336,
      -1.731774926185608,
      0.7073620557785034,
      0.07423854619264603,
      -2.561619520187378,
      -1.4574002027511597,
      0.5758577585220337,
      -2.262428045272827,
      0.18200601637363434,
      1.4407027959823608,
      0.07723980396986008,
      -1.554322600364685,
      -2.8657772541046143
    ],
    [
      -0.041952475905418396,
      -4.242041110992432,
      -0.9682364463806152,
      1.897976040840149,
      1.151390790939331,
      -1.3424204587936401,
      0.37631022930145264,
      -0.9816861748695374,
      -3.4901983737945557,
      1.6298930644989014,
      0.7882928848266602,
      -0.05241542309522629,
      -0.5456573367118835,
      0.5470850467681885,
      1.375569224357605,
      -0.5604056119918823,
      -0.8988947868347168,
      0.6533632278442383,
      1.0662107467651367,
      0.26818081736564636,
      0.7084282040596008,
      3.2445452213287354,
      0.46484851837158203,
      -0.9503040313720703,
      -0.10544812679290771,
      0.0951366201043129,
      0.9649482369422913,
      2.3867478370666504,
      1.5372774600982666,
      2.0106191635131836,
      0.5900627374649048,
      -3.5603716373443604,
      -0.06156526505947113,
      -3.8691203594207764,
      -0.6244774460792542,
      1.475831151008606,
      -1.8290319442749023,
      -0.3190849721431732,
      -0.66154545545578,
      0.10872295498847961,
      -0.17848381400108337,
      -2.155120849609375,
      -2.9484238624572754,
      -4.927682876586914,
      -2.6204710006713867,
      -1.3392287492752075,
      -1.0304272174835205,
      -0.2757929861545563,
      -0.3144180476665497,
      1.8056734800338745,
      -1.216113805770874,
      -1.8643183708190918,
      -1.5209370851516724,
      -1.302785038948059,
      -0.40329742431640625,
      3.991692066192627,
      -0.25231149792671204,
      -3.3417062759399414,
      -0.2623513340950012,
      0.28696346282958984,
      0.6116021871566772,
      -0.510102391242981,
      -0.9539955854415894,
      -0.7004223465919495
    ]
  ],
  "layers.0.bias": [
    -0.09520449489355087,
    -1.1235288381576538,
    -0.04901771619915962,
    0.42832231521606445,
    1.2580558061599731,
    0.13039527833461761,
    -0.40912583470344543,
    0.23395147919654846,
    0.2719031274318695,
    -0.3153967261314392
  ]
}
